18 10
the -0.022912918 -0.03155814 0.01843251 -0.040189084 -0.025513552 0.042044904 -0.0022456688 0.005382803 0.044426285 0.039324768
quick -0.010751151 0.022463793 0.032546937 0.041470286 -0.014298915 0.0052275686 -0.02529352 -0.010596802 -0.014035613 0.014498276
brown -0.017611444 0.006088081 -0.0489869 -0.030030962 0.039353076 -0.045627926 0.023506487 -0.040862385 -0.007355101 0.027248565
lazy 0.016302817 -0.040185004 0.016156044 -0.016452938 0.035425555 -0.016369108 -0.036612652 0.020533597 0.029095296 -0.0337388
dog 0.03708663 0.0018308233 -0.024560567 0.04962513 -0.003186296 -0.021153841 0.02991008 -0.038515154 0.03611965 -0.0008102377
fox -0.019749137 0.045219306 0.04378733 0.039314616 0.03931368 -0.030919487 0.044954993 0.030559296 -0.03823202 0.038397834
cat -0.03417775 0.002028729 0.0019391463 -0.013016038 -0.030159911 0.047581755 -0.04673699 0.014149818 -0.046737213 -0.007414772
jumps -0.038301215 -0.014793075 -0.03221636 0.0146276 -0.02570928 -0.031590786 -0.019456184 0.030909052 -0.034621205 0.047665212
over 0.014641646 -0.0073627103 -0.0016849142 -0.00967528 0.007724687 -0.011883051 0.014439655 -0.024494756 -0.008096038 -0.018267417
and -0.028245352 0.01830794 0.035560012 0.019352851 0.044970486 0.043119323 -0.047797695 -0.021349434 -0.046730753 0.046409603
a 0.018402861 -0.023996908 -0.020620737 -0.025061257 0.044723902 -0.04099752 0.033277124 -0.045163397 0.019160056 -0.026588056
sleeps -0.028064232 0.034707215 -0.0347739 0.0074468246 0.03339598 -0.02397981 -0.016570749 0.024385903 -0.01873217 0.012466464
on 0.021819416 0.03007577 0.047165018 -0.044988003 0.02033304 -0.039245687 -0.0085601 -0.0053039365 0.007996985 -0.048210304
sofa -0.021013947 0.013380765 -0.028358988 0.0043566166 -0.026006958 0.03244588 -0.0068448447 0.029130014 -0.025004584 -0.034433194
are 0.039649516 0.040966388 -0.027851032 -0.046274822 0.026343195 0.011280425 -0.027780466 0.038236864 -0.0023025498 -0.015737819
good 0.023923099 0.028944992 -0.032847278 0.008852766 0.048755657 0.00030558172 -0.048435133 0.03516715 0.038748726 -0.035604347
friends 0.006254967 0.01441221 0.0033574123 -0.022781545 -0.004572834 -0.00374401 -0.040040806 -0.04765524 -0.0063361493 0.0353813
chase 0.019132927 -0.047399677 -0.035766028 -0.02758875 -0.024745414 0.046024654 0.007036801 -0.005478545 0.0468224 -0.025684608
