19 10
the 0.023032123 0.01742772 -0.0016367098 -0.014125392 -0.03125805 0.00455521 0.021551743 0.048408266 -0.024446908 0.00760256
lazy -0.038279135 0.044086292 -0.038091574 -0.009296799 0.03198982 0.024827661 0.015967939 0.0019297539 0.008885398 0.044997375
dog 0.0066697155 0.0015403928 -0.01637329 0.007349681 -0.022163633 -0.015482043 -0.020497821 -0.013021037 -0.03589421 -0.021390727
quick 0.011307117 0.017530069 -0.014016552 -0.008662961 0.0006407846 0.021264423 0.0045877 -0.048969913 -0.04449139 -0.032031566
brown 0.00022726347 0.043349426 -0.048780285 -0.020159718 -0.02831108 0.00022199779 -0.04888143 -0.010140231 -0.03726381 0.0036699604
and 0.030863754 -0.017595978 0.00071226805 0.04465896 -0.04769016 -0.042380273 0.025864303 0.006104151 -0.029264892 -0.049330175
fox -0.04483189 -0.03990055 0.038988817 -0.045046017 -0.0060545136 -0.033384454 0.03124207 0.011224481 -0.044496905 -0.0067222165
cat -0.0021743139 0.0012199241 0.0006002808 -0.027178 0.045852046 0.018280717 0.0015075115 -0.009199795 0.041008994 -0.025926335
jumps 0.04209827 0.04893786 -0.0094750915 0.04285259 -0.018742874 0.0119664455 0.044897534 0.027565347 0.0060105775 -0.013379477
over 0.035057086 -0.018354617 -0.030941887 -0.022549195 0.012106184 -0.0043446417 0.019895129 -0.020312434 0.017153844 -0.03798063
a -0.024480814 0.015108374 -0.0022702932 -0.017667389 -0.04470232 -0.024267875 -0.0029343884 0.026145278 -0.0006260357 0.0073771635
sleeps 0.033600826 -0.048215777 -0.008617398 -0.016850695 -0.01969455 0.02082869 -0.034566846 -0.008401695 -0.036507946 -0.019049153
on -0.038149375 0.046129674 -0.035370708 0.032954168 0.04642558 0.030014725 0.029478338 -0.026241759 0.028898843 -0.003552538
sofa 0.0062806485 -0.008405131 0.030887512 0.046250567 -0.014293467 -0.014221401 0.027665114 0.036105588 0.04913972 -0.012931406
are -0.013640173 -0.01930681 -0.04162551 0.020850038 0.030616313 -0.025349248 0.026664248 0.013129627 -0.047368243 -0.009880881
good -0.0367757 0.0033416161 0.008786584 -0.034907732 0.04516428 -0.03701408 0.016587446 -0.013815621 0.025758779 0.015171856
friends -0.006725994 0.0016109018 -0.04014194 -0.04124048 -0.031989887 -0.0077273366 -0.048732392 0.01789763 0.034149766 -0.009304805
chase 0.02883137 -0.012438017 0.027516156 0.0153206345 0.005104917 0.023865031 -0.008159338 -0.04675855 -0.025210397 -0.044238336
lion 0.015344424 0.018587971 0.0050212354 0.040758617 0.04588879 -0.040799137 0.026643848 0.04237429 0.021658257 -0.04127543
